Language model created by QuickLM on Fri Jan 19 17:26:12 EST 2018
Copyright (c) 1996-2010 Carnegie Mellon University and Alexander I. Rudnicky

The model is in standard ARPA format, designed by Doug Paul while he was at MITRE.

The code that was used to produce this language model is available in Open Source.
Please visit http://www.speech.cs.cmu.edu/tools/ for more information

The (fixed) discount mass is 0.5. The backoffs are computed using the ratio method.
This model based on a corpus of 6 sentences and 8 words

\data\
ngram 1=8
ngram 2=12
ngram 3=6

\1-grams:
-0.7782 </s> -0.3010
-0.7782 <s> -0.2218
-1.5563 EXIT -0.2218
-1.5563 QUIT -0.2218
-1.5563 REFRESH -0.2218
-1.5563 RELOAD -0.2218
-1.5563 STOP -0.2218
-1.5563 UPDATE -0.2218

\2-grams:
-1.0792 <s> EXIT 0.0000
-1.0792 <s> QUIT 0.0000
-1.0792 <s> REFRESH 0.0000
-1.0792 <s> RELOAD 0.0000
-1.0792 <s> STOP 0.0000
-1.0792 <s> UPDATE 0.0000
-0.3010 EXIT </s> -0.3010
-0.3010 QUIT </s> -0.3010
-0.3010 REFRESH </s> -0.3010
-0.3010 RELOAD </s> -0.3010
-0.3010 STOP </s> -0.3010
-0.3010 UPDATE </s> -0.3010

\3-grams:
-0.3010 <s> EXIT </s>
-0.3010 <s> QUIT </s>
-0.3010 <s> REFRESH </s>
-0.3010 <s> RELOAD </s>
-0.3010 <s> STOP </s>
-0.3010 <s> UPDATE </s>

\end\
